nep4 3 Mo W Se 
cutoff 8 4 60 15
n_max 4 4
basis_size 8 8
l_max 4 2 0
ANN 30 0
  5.4492578e-02
 -4.4992098e-04
 -3.3878732e-01
 -2.6835522e-03
  1.0997791e-01
 -7.2634034e-03
  3.5384416e-03
  4.4453819e-03
  2.2809038e-02
 -7.6924455e-03
  3.7656598e-02
  2.2740053e-01
  1.8203808e-02
  7.7304579e-03
  3.1005493e-01
 -5.4039359e-03
  9.0290524e-02
 -2.5762855e-03
 -3.5246655e-03
  1.0241013e-02
 -1.5380960e-03
  1.0132337e-03
 -5.3561572e-03
 -1.5788984e-03
 -2.4345578e-03
  1.2127881e-01
  2.8223014e+00
  4.4473228e-03
 -1.3440320e-02
 -2.8640259e-02
 -1.2417716e-02
  1.4802139e-01
  1.3882447e-02
 -1.3266832e-01
 -1.0568925e+00
  2.3544479e-02
 -4.1285392e-02
 -1.2306804e-03
 -1.2565213e-01
 -1.2621002e-01
  3.2624949e-02
  1.8914243e-02
  9.5470347e-02
 -2.5297385e-01
  9.0016805e-02
  1.6094467e-01
 -7.5129852e-02
 -8.4357083e-02
  1.6760578e-02
 -2.0554953e-03
 -1.8544389e-02
 -2.2812432e-03
 -6.2496020e-03
  2.4245451e-01
 -2.0350672e-02
  2.6114000e-04
  1.4075231e-02
  5.4933308e-03
  3.1142300e-02
 -3.9692193e-02
  3.5644216e-03
  5.4475805e-03
  7.3542780e-01
  6.2398096e-03
  5.6378886e-02
  8.2069598e-03
 -8.3272075e-03
 -9.5782308e-03
  4.1345524e-04
  8.5277557e-03
  7.9628251e-02
 -2.8176007e-03
 -9.5451074e-03
 -4.7211275e-02
 -8.0701234e-03
 -2.6358920e-01
 -6.4433163e-01
 -9.5205205e-03
  5.5664154e-03
  1.6562934e-03
  8.8161724e-03
 -1.1197456e-02
  8.1384863e-04
  2.9855822e-03
  1.0166770e-02
  8.4639303e-03
  2.3883166e-02
 -1.8850248e-02
 -1.4589459e-01
 -3.3568011e-03
  6.3583508e-02
 -2.2167169e-01
 -7.3565561e-01
  3.6409190e-01
  9.6537650e-02
  1.0573935e-02
 -3.3156740e-04
 -4.0464527e-03
  3.9321844e-02
  1.3775419e-02
  1.2205080e+00
 -2.2833074e-02
 -2.7658340e-02
  1.2002509e-01
  1.3181384e-01
 -1.8899821e-01
  3.8420226e-02
 -9.6212998e-03
  8.7279733e-03
 -1.2753275e-02
  6.5065134e-01
  4.9339719e-02
 -3.6491135e-01
  1.2759995e-02
 -3.0445821e+00
  2.4906005e-01
 -1.8850998e-03
  1.6022820e-03
 -1.1686813e-02
 -6.4402516e-03
  1.9429876e-02
  9.8367799e-03
 -8.6783063e-01
  1.5253636e-02
 -7.4151079e-03
 -4.9552885e-03
 -1.8087579e-02
  5.4716022e-04
  1.5699539e-02
  3.0810316e-03
  7.0068636e-03
  9.6084857e-03
  5.4011457e-03
  1.0108929e-01
 -1.7968586e-03
 -6.5561950e-02
  5.5844411e-02
 -3.1779704e-03
 -2.5370333e-03
 -2.5773168e-02
  1.1333852e-02
 -7.8137321e-03
  3.3817180e-02
  1.6992005e-02
  2.9720715e-03
 -8.3228821e-05
  1.0385426e-02
 -3.5644479e-03
 -1.2510674e-04
 -7.3349876e-03
 -1.9113575e-01
  1.5533707e-02
 -5.2359545e-01
 -3.4110117e-01
  2.6083612e-01
  1.7744653e-02
 -1.3401754e-02
  8.6537143e-03
 -7.3747002e-02
 -5.2969222e-04
 -4.1283033e-04
  5.1920576e-04
  8.7560378e-03
 -8.6715100e-03
 -1.9242747e-02
  1.0072640e-01
  2.6505631e-03
 -8.7479040e-02
 -2.3562106e-04
  1.5603412e-04
 -7.7465586e-02
  4.2284471e-03
 -2.3470217e-02
  1.9852821e-02
  1.6413637e-03
 -5.5005238e-03
 -1.7633777e-02
  9.5982356e-03
 -3.4522451e-02
  8.0702342e-03
 -1.1962511e-01
 -1.6628045e-01
  6.9293749e-01
  6.2331259e-02
 -1.2471864e-01
 -1.1875454e-01
  1.5256846e+00
 -1.5744073e-02
  7.0171475e-01
  1.7642832e-01
 -2.3204552e-01
 -3.5626211e-03
 -3.2862421e-02
  1.3279654e-01
  2.9387426e-01
 -2.2300260e-01
  5.4927504e-01
 -3.7970459e-03
  4.9745113e-02
 -1.1324111e-02
  1.2051447e-01
  2.2387233e-02
 -3.1026059e-01
  3.2472241e-01
  5.8708674e-01
 -2.1707049e-01
  2.5764290e-02
  4.4407994e-02
  4.9341714e-01
 -6.0125794e-02
 -9.1700375e-02
 -4.0455410e-01
 -1.9414495e-01
 -1.2378692e-02
 -4.0621886e-01
 -1.7830726e-02
  1.8778704e-02
 -1.4804043e-02
 -3.6919379e-01
  1.0723879e-02
  9.0302177e-02
  2.0705879e-01
 -1.3432441e-02
 -1.6420312e-01
 -7.7069188e-03
 -5.9441917e-02
  1.5039343e-03
 -1.6895669e-02
 -2.8301561e+00
 -2.5201125e-02
  7.2545156e-02
  4.3705147e-02
 -1.1531634e-02
 -2.9185063e-03
  8.2561009e-02
  6.0789627e-01
  1.3311629e-02
  4.8137795e-02
 -3.0604908e+00
 -4.0391227e-03
  3.0291788e-02
 -4.8126359e-02
  1.6729751e-01
  1.0720976e-02
  2.7490051e-02
 -1.6974755e-02
 -1.6547183e-03
  3.0189177e-03
  1.1816185e-02
 -1.5546477e-02
 -3.2211268e-01
  7.3140920e-03
  1.0972717e+00
 -1.4240738e-02
  1.1241898e-04
 -2.0763569e-02
  9.6445400e-03
  1.5284833e-02
  9.3701733e-03
  9.0160398e-03
 -1.4080208e-03
  6.4343899e-03
 -9.3212500e-03
  1.8423436e-02
  1.9599326e-01
 -1.4902749e-02
 -7.6555115e-01
  1.2497431e-02
 -1.1392256e-02
  4.9666655e-03
  7.6830186e-02
 -3.4674138e-01
 -5.5411947e-01
 -1.9284759e-02
  1.3976628e+00
 -6.3724142e-01
  9.8928648e-01
 -1.2625127e-01
  1.7536732e+00
  9.5110810e-01
  4.9484184e-01
 -1.1491679e+00
  2.6350743e-01
 -2.2163637e-01
  9.6563596e-01
 -3.6097568e-01
  3.4793134e+00
  2.2106953e+00
  1.2192463e+00
 -4.2251751e-01
 -1.6173795e+00
  9.1167796e-01
  3.0651280e-01
 -1.3439728e+00
  1.3899368e+00
 -4.5487505e-01
 -4.1506460e-04
  6.5787449e-02
  2.4092600e-01
 -1.1049268e-01
 -8.7240890e-02
 -1.0519103e+00
 -7.5483745e-01
  7.8383513e-02
  7.4236423e-01
  1.6654586e-02
 -6.3515329e-03
  2.3366848e-03
  3.7163420e-04
 -4.9095368e-03
 -2.7976677e-01
 -2.6159608e-03
  9.2613995e-02
 -9.1971141e-01
 -6.0024476e-01
  1.2271119e+00
  1.2365923e+00
  2.0050360e-01
  2.5209103e-02
  1.5274394e-02
 -4.2826097e-02
 -4.9961107e-03
  1.6688521e-01
 -4.4735956e-01
 -1.0940070e-02
  4.4462627e-01
 -1.1980475e-03
 -6.5215999e-01
  3.9736424e-02
  3.1176675e-02
  2.7893233e-01
  8.1311542e-01
  4.7179139e-01
  3.3825073e-02
 -1.4576716e+00
 -3.6781294e+00
  8.4511328e-01
 -1.9795306e+00
  2.0423760e+00
  1.0155709e+00
 -2.1123186e-02
  1.6737481e+00
 -2.5610369e-01
 -2.3254225e-01
 -8.8070035e-01
 -1.1567005e+00
  1.0973105e+00
  9.8268926e-01
  1.6081369e-02
 -8.0816960e-01
 -2.2604562e-01
  1.6024809e+00
  4.7681303e+00
 -8.2818216e-01
 -2.7097836e-01
  2.2757298e-01
  3.2909937e-02
  5.5974260e-02
 -9.7776532e-02
 -8.7785989e-01
  7.6874539e-02
 -2.1579154e-02
  1.2107278e+00
 -1.4756566e-02
 -5.9247282e-03
 -3.9188720e-02
 -7.5936951e-03
 -2.6221730e-02
 -8.4737611e-01
  2.3337267e-03
  3.7076829e-03
  3.7227587e-03
  1.3833933e-02
 -4.3422938e-03
 -1.2041426e-02
  2.6140304e-02
 -9.9534832e-04
  1.2108059e-02
  9.2960289e-04
 -8.1188614e-03
 -1.0439689e-02
  5.7263779e-03
 -2.3914161e-03
  3.7389141e-02
 -9.4158650e-06
 -1.1576782e-02
 -2.7933763e-02
 -2.0325168e-03
  5.7442496e-03
  2.6259471e-05
 -2.5858994e+00
 -6.7748033e-02
  9.5848686e-01
 -1.7650901e-01
 -1.7254344e+00
  2.8089124e-03
  1.1020076e-02
 -1.4623147e-02
  2.1199044e-02
  1.9197030e-02
 -6.4915217e-02
 -5.4251379e-01
 -5.2253166e-03
  2.4296746e-01
 -9.9190436e-02
  1.4866296e+00
  3.7694588e-02
  1.8746983e-01
  3.9671961e-02
 -6.3169049e-03
  4.0951051e-02
  4.2940778e-04
  2.1034425e-01
 -3.7717905e-02
  3.6319345e-04
 -1.4604484e-01
 -3.7769683e-02
 -1.3879101e-03
  1.0335041e-01
 -3.3246126e-02
  5.7829082e-01
  6.3359898e-01
 -1.0595927e+00
 -3.4021679e-01
  2.4834535e+00
 -2.6333854e-01
  5.7032168e-02
  7.0282680e-01
  3.2914349e-01
  1.3814227e-02
 -3.4002277e-01
  2.9830079e-04
  1.1423015e-02
 -2.9837564e-01
  1.1881761e-01
 -9.9948454e-01
  5.7465404e-01
  1.6269682e-01
  2.1189311e-01
  8.1661990e-04
  1.8516887e-02
  1.9371098e-01
 -2.5496882e-01
  1.6742432e-01
  1.8837292e-01
  9.0318844e-02
 -1.5831629e-02
 -4.6697059e-03
  2.8317446e-01
 -2.6134911e-03
  2.2430074e+00
 -4.8827392e-01
 -1.0018336e+00
 -1.0248774e+00
 -2.9309693e-01
 -2.4736637e-01
  9.4994895e-02
 -1.0753485e-02
  4.1849890e-01
  3.4776952e-02
 -4.3116277e-01
  6.9725132e-03
 -8.1809171e-02
 -2.1180959e-02
  1.4106007e-02
 -6.1582571e-01
 -1.1108860e-02
  5.5664428e-02
 -4.0943189e+00
 -2.8884878e-02
  3.9476740e-01
 -6.8715364e-02
 -1.8500300e-01
 -5.5891532e-03
  6.4840101e-02
 -4.1044387e-01
 -6.5930723e-03
  3.4410138e-02
  6.1557807e-02
 -1.7214184e-01
  1.9131747e-01
 -9.3880825e-02
 -1.0591208e+00
 -1.7647399e-01
  1.1233168e+00
  1.1707246e-02
 -2.6054243e-02
  2.1090751e+00
 -4.0829651e-02
 -5.4989642e-01
  2.8491424e-02
  1.5088347e-02
  2.0383583e-01
  6.9177586e-01
  2.5535006e-02
  2.2226300e-02
 -2.8080207e-01
  1.3269203e-02
  3.0673821e-03
  9.4656199e-01
 -8.7672405e-02
 -7.9876557e-02
  1.2882076e-01
 -1.7054695e-01
  7.2945370e-03
 -1.0031576e-02
 -1.4727288e-02
  8.0554523e-03
 -1.4458275e-01
  2.7193958e-02
 -3.7658967e-03
  2.0284617e-02
 -1.0052196e-02
  9.4168698e-03
  9.1837021e-03
  5.1836004e-03
 -2.3711058e-03
 -4.2447830e-03
 -1.2181085e+00
 -6.9729734e-04
 -1.2705136e-02
 -1.0307438e-03
 -1.2804693e-02
  1.7155245e-02
 -1.7688681e-04
  4.9535804e-03
 -5.4208352e-03
 -1.8449809e-02
 -2.0311384e-03
 -9.7146479e-04
 -1.8484185e-02
  2.1747101e-02
  1.6405739e-02
 -6.3917050e-03
  2.6121538e-02
  6.2820653e-04
  1.4926806e-02
  5.9083883e-02
 -3.4359135e-03
 -5.0241565e-03
  9.1497883e-02
  1.1317383e-01
  7.8094971e-01
  8.2626891e-01
 -1.6477717e-01
 -1.2374976e-02
 -5.3598196e-03
 -1.0672726e-01
  1.8769333e-02
  3.1533293e-02
 -1.0934886e+00
  3.1281229e-02
  8.3939624e-01
 -2.0023771e-01
  2.5182343e-01
 -1.4054820e-01
  3.9015746e-01
  1.2819688e+00
 -2.4103515e-02
 -1.9145953e-02
  1.4944911e+00
 -5.2808583e-02
 -2.2264337e-02
 -2.6164049e-01
  7.5829551e-03
 -1.2630084e+00
  2.1365722e-01
  1.2510644e-01
 -2.1861161e-03
  3.0746814e-05
 -1.5224142e-01
 -1.1691251e-01
  6.2512684e-01
 -1.0748693e+00
 -1.4601551e-01
 -4.3990773e-01
  1.2876323e-01
 -1.1250301e-02
  7.0856893e-03
  5.2852716e-02
  4.1149096e-03
 -1.0998609e-02
  1.2452804e-01
 -5.8121848e-01
 -9.0349811e-01
 -1.1845251e-01
  8.8605279e-01
  4.0859568e-01
  3.2363692e-03
 -1.1114050e-02
  2.9456437e-01
  8.8981213e-03
  1.1901107e-01
  3.1618401e-01
  2.4073310e-01
  5.2451241e-01
  1.2580683e-03
  3.0998811e-01
  1.2608351e-01
 -5.4304958e-03
 -1.5494977e-03
 -1.7771292e-03
 -9.6408784e-01
 -2.2175904e-02
 -9.7834168e-04
 -6.1331107e-03
  1.7593837e-01
 -2.6029304e-02
  3.9774987e-01
  3.6906274e-03
 -1.0395027e-02
 -5.7378630e-03
  3.3052003e-03
  2.2793214e-03
 -9.7181089e-04
 -2.5856921e-03
  8.9838207e-03
  9.8984269e-03
 -1.8280782e+00
  2.1865124e-02
  3.3767451e-02
 -5.8317417e-03
 -2.4625711e-02
 -3.4619058e-03
  6.1370516e-03
  1.6372714e-02
 -1.3403912e-02
  1.1494707e+00
 -4.8917901e-02
  2.5069762e-02
 -3.0383393e-01
 -7.4202928e-04
 -5.3538299e-01
  1.7970471e-02
 -1.0908592e-02
  8.3702710e-03
 -1.6095778e-01
 -2.4387727e-03
 -1.4066130e-02
  8.9129573e-03
 -5.0914488e-03
 -1.6813200e-02
  1.1911592e-02
 -4.1907676e-03
  4.2200903e-03
 -1.6095964e-03
 -3.4406795e-03
 -5.1554134e-03
 -3.1111997e-02
 -7.3170677e-02
  7.0992201e-03
 -1.1704557e-02
 -1.3406225e-02
 -5.5627007e-04
 -1.2196987e-02
  3.0280869e-03
 -9.3302280e-03
  2.5011550e-03
 -8.5191699e-03
 -1.3732389e-02
 -2.7523816e+00
  1.0637075e-03
 -9.2607382e-04
  9.1126822e-03
 -1.6209880e-02
  1.6406858e-02
  8.4818676e-03
 -3.3291013e-03
 -1.8275576e-03
 -1.1435037e-02
  3.9393000e-02
 -9.1238791e-01
  1.5012388e-02
 -1.0477504e-02
  2.6873330e-04
 -4.1107968e-03
 -7.3469488e-04
 -1.0059580e+00
  6.7139636e-03
 -1.9248418e-03
  2.4124109e-03
  5.5159340e-03
 -2.5583498e-02
  2.0339534e-02
 -5.4749800e-03
 -1.2889308e-02
  5.0055659e-03
 -9.8558292e-03
  8.7897349e-03
 -1.3795087e+00
  2.8414171e-02
 -5.1268893e-03
  5.9384352e-01
  2.2632034e-02
  5.0522262e-01
 -1.7721232e-03
  3.5115251e-01
 -2.3684225e-03
  2.8092897e-02
 -2.5712773e-02
  7.9858731e-03
  5.1124641e-03
 -7.9135327e-03
 -2.3734733e-02
 -9.3348045e-03
  6.9860257e-03
 -2.1452587e-03
  1.7680674e-03
 -1.8811718e-02
  9.1817183e-03
 -3.8885280e-01
  1.0145882e-02
  6.2718247e-03
 -1.2843224e-02
  6.4602424e-03
  5.0518853e-03
  7.4171224e-03
  4.6269088e-03
 -1.5673816e-02
 -4.4265836e-03
  1.0856350e-01
 -2.9981583e-01
 -6.2692857e-01
 -8.2464116e-03
 -2.5321830e-02
  2.1512387e-02
 -1.3255453e-03
 -1.5561550e-02
 -2.5550134e-02
 -2.2598123e-02
 -6.5726765e-02
 -8.8121224e-04
 -2.4862732e-03
 -3.3687748e-02
  5.9127768e-07
  4.3338337e-03
  2.7436737e-03
 -6.8060664e-04
  3.1227461e-04
 -4.3619070e-03
 -2.4487132e-03
  1.0203580e+00
  2.3977242e-02
 -5.5440277e-02
  1.5409999e-03
  5.3024800e-03
 -5.9717796e-03
 -1.2824426e-02
  3.9874627e-03
 -6.0020298e-01
 -8.1858659e-01
  3.6658779e-01
 -3.9455348e-01
  3.3898500e-01
  3.6878359e-01
 -3.4191543e-01
  1.4682783e-02
 -1.2981826e-01
  6.8439975e-02
  5.5522945e-02
  3.5616148e-01
 -5.0116722e-02
 -1.3214923e-01
 -2.8799275e-01
  6.2960029e-01
 -1.4445977e-01
  4.0729679e-03
  5.5768773e-02
 -1.0445913e-01
 -1.8761689e-02
 -2.4365561e-02
  5.0122878e-03
 -8.6985163e-02
 -1.8352711e-01
  2.8252083e-01
  7.2990197e-01
  7.0269264e-02
  1.7032864e-02
  1.2785774e-01
 -1.3514679e-03
 -6.4596832e-01
 -6.2989980e-01
  4.7314671e-01
  8.3094640e-03
  1.2082511e+00
 -1.8590643e-03
  1.7045918e-01
  1.1589817e-03
  5.5120144e-02
 -6.5653080e-01
  3.4670666e-02
  4.4367149e-02
  8.7997925e-01
  6.9977812e-02
  7.8012034e-02
 -7.5584911e-05
 -4.5066722e-02
  9.3116567e-02
  1.4573171e-02
 -1.2891286e-02
  6.8976707e-04
 -3.9493188e-02
  7.0937979e-01
  2.3782927e-01
  1.4309247e-03
  4.0175579e-04
  3.3633016e-05
 -6.0701686e-01
  5.9605205e-01
  2.1490447e-02
 -5.9619150e-04
 -4.2727835e-02
 -6.5820807e-01
  8.6968504e-03
 -2.6211462e-03
  5.3494233e-01
  1.5473275e-02
 -1.2630735e-02
 -1.5901553e-02
  4.2918217e-03
 -1.1814530e-03
 -1.2654191e-02
 -1.6492626e-03
  1.9940609e-02
 -4.4016121e-03
 -1.2690092e-02
 -3.3249337e-02
  4.8117754e-03
  2.1713329e-02
  8.1443470e-03
 -1.2552076e-02
 -9.5932083e-03
 -9.5142180e-04
  1.1998322e-02
  5.4833042e-03
  2.7992651e-02
 -8.9507792e-03
  1.9558545e-03
  9.9210264e-03
 -1.3832602e-03
 -9.6215785e-02
  5.2686152e-03
 -5.8181983e-01
 -2.7303642e-02
 -1.6233537e-01
 -3.1832300e-02
  1.3761494e-02
  1.2544739e+00
 -5.5409335e-03
  4.5400388e-03
 -7.2521798e-04
  2.0477206e-03
 -1.2127356e-02
  1.4650612e-02
 -4.2686961e-03
  1.1013382e-02
 -8.5511915e-03
  5.9411506e-04
 -1.2400332e-02
 -2.6012715e-02
  6.8570025e-02
  7.6567899e-03
 -1.4421396e-03
 -4.6405476e-03
  1.4431469e-02
  3.0134034e-03
  5.8144170e-01
  1.1199244e-02
  8.2499916e-03
 -5.2652595e-04
  5.6366742e-01
  9.3133459e-03
  3.9311773e-01
  2.5191143e-01
 -1.3905534e-01
 -1.5535682e+00
 -9.9758627e-03
 -2.4820806e-03
 -2.0732885e-04
 -2.0549724e-02
 -1.1840371e-02
  1.1336544e-02
 -1.3299061e-02
 -6.8387561e-02
 -1.7396668e-02
 -1.9714130e-02
 -1.0834238e-02
 -2.1308803e-04
 -7.3886747e-03
 -8.0857212e-03
 -7.3204669e-03
  2.2692211e-02
  2.0454781e-02
 -7.2927307e-03
  5.2556577e-03
  2.6407402e-02
 -1.7135641e-02
  6.2655457e-03
  5.1905643e-03
  7.8327656e-03
 -1.5127865e+00
  8.4894025e-01
 -5.2225634e-02
 -2.5663070e-02
  1.5200258e-03
  2.6050707e-02
 -1.0547346e-01
 -1.3233027e+00
  1.4687943e+00
  6.4978647e-01
 -1.0206846e-02
 -4.6362492e-01
 -1.4002383e-03
  6.8121111e-01
  1.0550140e+00
  7.1535945e-02
  4.7772127e-01
  2.9686408e+00
 -9.7473288e-01
  1.4286742e-01
 -1.8657169e-03
 -7.4660379e-01
 -5.0452507e-01
  4.8528060e-02
  1.1011626e-02
  1.0377744e-01
 -2.2415161e-02
  1.7966519e-03
 -6.9868729e-02
  1.4853696e-02
  6.3637549e-01
 -7.8029290e-02
 -4.3627715e-01
  1.4744813e+00
  8.1861967e-01
 -5.4732072e-01
  1.5144426e+00
  6.4268762e-01
  4.3092385e-01
  3.3479747e-01
 -6.2340862e-01
  3.9112726e-01
 -6.2961060e-01
  1.9326274e-01
  2.3744360e-01
  1.9331710e-01
 -8.3465832e-01
  4.0718430e-01
  1.1514182e+00
  4.8463523e-01
 -7.2141331e-01
  1.0790159e+00
 -2.1916451e+00
 -5.1386398e-01
 -5.7797468e-01
  7.9213732e-01
  4.8254725e-01
  3.3959711e-01
  7.3628139e-01
 -4.7821158e-01
 -2.3780866e-01
 -2.1897273e-01
  2.9293746e-03
  1.1364724e-02
  5.5733439e-02
  1.8919538e-03
  7.1386207e-04
 -7.6344376e-03
 -5.2824873e-02
 -9.7500980e-03
  3.1418586e-01
  1.2195169e-03
 -2.0671070e-01
  2.3380125e-01
  5.5245869e-03
 -2.6971700e-02
  7.1532517e-03
  5.0001207e-04
 -2.3856502e-02
 -5.3100451e-03
 -9.1512099e-02
 -1.4991881e-02
  1.4031389e-02
 -9.6666097e-04
  2.2230756e-02
  1.0899452e+00
 -8.6086011e-03
 -3.2093484e-02
 -7.7609429e-03
  3.2668837e-04
 -2.7889661e-03
 -2.3532592e-01
 -2.2790855e-04
 -9.8355800e-02
  2.3678766e-01
 -4.7176876e-03
  8.3628530e-03
  1.6841969e-02
 -1.1846198e+00
 -9.9126268e-03
 -1.2342156e-02
 -1.0111187e-02
 -1.0261664e-02
 -2.0782256e-03
 -3.4750890e-02
 -5.8816676e-03
  8.9992880e-04
 -6.3675684e-01
 -1.3203137e-02
 -8.8169554e-04
  4.3555102e-03
  6.8404919e-01
 -7.2678258e-03
 -3.4678612e-02
  1.1180718e-03
  4.0237601e-03
  8.7537123e-03
 -1.0625094e-02
  7.0997137e-03
 -2.6127107e-02
 -9.7631076e-03
 -5.7629412e-01
  6.6354466e-03
 -4.3973732e-03
  3.2884572e-02
 -1.3829621e-02
  3.8187720e-03
  3.7367430e-03
  8.6461017e-03
 -3.3007853e-02
  9.9116890e-03
  1.2072446e-02
 -2.2849285e-03
  1.0759627e-02
  1.7821515e-02
 -9.6692830e-02
 -2.5685653e-03
  1.6612818e-02
  1.8622076e-02
  4.6471246e-03
 -4.9270354e-03
  3.6668882e-03
  4.2897686e-03
  9.9789491e-03
 -6.6471649e-03
 -1.3456855e-02
 -5.9564199e-02
  2.7758831e-03
 -3.0770630e-03
 -2.0726740e-02
  6.9697267e-01
  4.8275596e-01
  9.8463614e-04
  3.7485703e-03
 -2.3761690e-01
  1.0724473e-03
 -5.1919525e-03
 -1.4613349e-02
  2.7590556e-02
 -5.9284405e-03
 -8.4386971e-03
 -7.1724844e-03
  8.3460677e-03
  6.9700340e-03
 -4.3623168e-02
  3.1323903e-03
  2.8664747e-03
  5.4642181e-03
 -2.2160269e-02
  2.9497584e-02
  1.3365704e+00
  1.8110585e-01
  1.2446350e-02
  2.7050704e-02
  9.3919635e-03
  5.2278428e-03
 -2.5805674e-04
  7.8624528e-04
 -1.8511325e-03
 -2.9503150e-02
  7.5727904e-01
  1.1405426e+00
 -2.6678196e-01
 -1.2345919e-01
  3.7947842e-01
  6.7158416e-03
  1.3845584e-03
  5.5488227e-03
 -1.5704870e-03
  1.4606063e+00
 -3.0438474e-01
  1.4280759e-02
  7.4618697e-01
  3.7958841e-03
 -1.7147984e-02
 -2.8452852e-01
 -5.6345814e-01
  9.8693138e-04
 -7.3535857e-03
  6.4376662e-03
 -8.9863557e-03
 -4.9170488e-03
  2.6530884e-03
  3.4461072e-01
  1.0045427e-01
 -8.4989890e-02
 -1.8561328e-03
 -1.5653811e-02
 -4.5499075e-03
 -9.8204112e-04
 -7.3093361e-01
 -4.2823055e-01
 -3.0184099e-01
 -1.0391080e+00
 -2.7325460e-01
 -1.3906577e-02
  2.5949939e-03
 -6.5191048e-03
  4.5459133e-01
  3.6414966e-04
  2.6386893e-01
 -1.0376567e-02
  1.2477313e-01
  5.5543679e-01
  2.3248448e+00
  2.3106446e+00
  1.5463836e-03
 -3.4778479e-02
 -1.3116995e+00
  8.2675135e-03
 -1.5706655e-02
 -4.7257385e-05
  1.4688537e-02
 -1.0222341e-02
 -7.0313960e-03
 -8.2583725e-03
  2.3354229e-02
 -8.1861112e-03
 -1.7999964e+00
  1.6801638e-03
 -7.1974071e-03
  1.5682965e-03
 -2.3363209e-01
  1.1999622e-03
  8.1276256e-01
  8.9065433e-03
  1.3128238e-02
  6.0396306e-03
  1.9349883e-03
  6.3598230e-03
 -1.2725975e-02
  1.9657672e-03
  2.3609370e-01
 -1.3617652e-03
 -2.7799034e+00
  3.7414394e-02
 -1.4017783e-03
 -7.7750874e-03
 -1.0033101e-02
 -2.7745872e-04
 -3.5620768e-02
  6.0732281e-03
 -2.9997730e+00
 -2.5693679e-03
 -1.0880682e-02
  5.5852993e-03
 -1.9041398e-01
 -2.4466796e-02
  6.9194636e-03
  3.4842502e-02
 -5.5218631e-01
  1.4510738e+00
 -2.0036672e-01
 -2.5036929e-03
  5.2592605e-01
 -1.3423400e+00
 -1.9085033e-02
  1.1471238e-02
 -1.3507411e-02
  7.2327518e-01
 -2.7353859e-01
  2.3615213e-01
  5.5372912e-01
 -1.2005788e-03
 -1.1415818e-01
 -2.4521922e-01
 -6.1552775e-01
  3.0402865e-02
 -1.5195020e-01
  6.9949487e-03
  1.1600558e-01
  2.2314729e-02
  3.3137974e-01
 -2.2391114e-01
  7.9935387e-02
 -9.0351254e-01
 -2.1310771e+00
  5.0001267e-02
 -4.2787783e-02
 -4.0686572e-01
 -8.8845950e-01
 -6.7643571e-01
  3.3743593e-01
 -8.3168946e-02
 -1.9119741e-01
 -6.9608395e-03
  1.1117387e-03
  1.1862715e-02
  4.5319018e-03
 -5.7869214e-03
 -3.5883524e-02
  1.1956426e-02
  4.0396953e-01
 -2.6654368e-03
  6.6734292e-02
 -3.6663604e-03
  7.7514267e-03
  2.2304337e-02
 -5.8600693e-03
 -8.7249335e-03
  2.9242380e-02
  1.7066824e-03
  4.2390019e-02
 -1.3462866e-03
 -3.2278488e-03
 -1.8762618e-01
 -1.3301976e-02
 -3.6735940e-04
 -5.4229939e-01
 -3.0960236e-02
 -8.1238793e-03
  4.5621365e-01
  1.6766831e-02
  4.8166052e-01
 -2.9878068e-01
  2.5337236e-03
 -7.0493962e-03
 -8.7208170e-03
  7.2090388e-03
 -5.2727195e-03
  6.6682347e-03
  5.2240170e-03
 -1.1558107e-01
 -1.3755540e-02
  1.5447363e-02
 -1.0403946e-02
 -1.5638937e-03
  1.3526728e-02
  8.5166009e-04
  5.5080052e-03
  2.0975505e-03
  5.1042309e-04
 -9.0426663e-03
 -1.8396650e-03
  3.6948919e-02
  2.4859732e-02
  1.1343576e-03
  1.9882538e-03
  1.8055104e+00
 -3.4317054e-05
 -1.8289066e-03
  1.8862773e-01
 -1.5420908e-02
  1.0563021e-03
  9.5054615e-01
 -1.1920990e-02
  1.5575269e-02
 -7.6982514e-03
 -5.4547517e-04
  2.9483831e-02
 -4.5279148e-03
 -4.6477336e-04
  1.2115315e-03
 -1.7544474e-02
 -9.2790145e-03
 -9.8926751e-03
  2.9950181e-04
  5.0927489e-04
 -1.0005940e-01
 -1.4035667e-03
  2.0870628e-02
 -1.2176017e-03
  1.7405262e-02
  8.1895888e-03
  3.0493932e-03
 -3.5160527e-02
  3.4219618e-03
  1.6335471e-02
 -3.5019743e-03
 -2.5299716e-01
 -1.5089835e-01
  2.3951104e-02
 -7.2173283e-02
  2.8674623e-02
  5.3989607e-01
  1.5564319e-03
  1.2126242e-04
  1.5022812e-03
 -6.2495652e-03
 -2.3752229e+00
  3.0547533e-02
 -1.1264472e-03
 -7.1909023e-03
 -5.9945555e-03
  3.5091219e-03
 -1.1317419e-03
 -6.7149377e-03
 -8.8886634e-02
 -3.6853803e-03
  3.6143046e-03
 -2.5558485e-02
 -9.5389262e-03
 -8.7834377e-04
 -1.5021402e-02
 -1.6514030e-03
  7.2102658e-03
  9.3600698e-05
 -7.5692013e-03
 -6.9652465e-03
  1.3583075e-02
 -1.9949006e-02
 -3.7315756e-01
 -1.8772924e+00
  3.7060939e-02
  5.0330419e-02
 -4.2508771e-03
  1.0757335e-02
  1.6365962e-03
  2.1199125e-03
 -3.3082431e-03
 -1.1744968e-01
 -1.4455869e-02
 -8.3691878e-03
 -5.1465373e-05
  1.1462552e-02
 -8.4840534e-03
  1.4395665e-03
 -5.5677104e-03
 -9.6713315e-04
  2.7186574e-02
 -2.4339911e-03
  5.8635524e-03
  9.2843436e-03
  3.2712345e-03
 -6.3070194e-03
 -3.0417852e-02
 -9.6955467e-03
  8.4678307e-03
 -3.5638139e-03
  5.0322660e-03
  5.0908141e-03
 -8.4410489e-01
  2.9713110e-04
  4.2274459e-03
 -3.2565366e-02
 -1.6307442e-03
  7.5815474e-03
 -2.3957876e-02
  6.3540372e-03
 -1.4900245e-02
 -1.7036876e-04
 -1.4770395e-03
 -9.9581890e-03
 -3.4663565e-03
  1.3120284e-03
  1.4374190e-02
  6.7108264e-03
 -2.7328294e-03
  1.1523485e-03
  3.3755167e-03
 -5.3382535e-03
 -1.0930808e-02
 -1.1263308e-03
 -2.5357777e-02
  1.7161842e-02
  3.5986695e-02
 -1.3864465e-03
 -7.3835221e-03
  2.2549490e-02
 -2.3577755e-02
 -7.0059799e-02
 -1.1512708e-01
 -2.4326259e-02
 -3.0953911e-01
  7.9892896e-02
 -1.0571576e-03
  6.2824893e-03
 -7.3288754e-03
  3.8927354e-02
  2.3519450e-03
  1.2891199e-02
 -1.8727459e-02
  5.5606216e-02
  1.6900505e-05
  6.4976984e-03
 -1.9794563e-02
 -3.0829009e-02
 -8.4611811e-03
 -1.3904475e-01
  2.0802094e-02
  1.6348269e-03
 -1.3929452e-02
  5.9121698e-02
  7.0037115e-03
 -1.0978708e-02
 -1.4736135e-02
 -6.1078570e-03
  8.7087041e-01
  5.6331283e-03
  7.9293378e-02
 -5.5970822e-02
 -5.3948897e-01
  6.2963023e-05
 -1.4423522e+00
 -1.8420772e-01
  1.9305736e-04
 -1.8909609e-02
 -1.2928252e-03
  1.4945439e-02
  1.5550392e-03
  4.3619582e-03
 -1.3389089e-02
  2.5560802e-02
 -8.9585535e-02
 -3.2221638e-03
  6.0680043e-03
  3.5811511e-01
  2.2394201e-03
 -3.7953708e-02
 -5.8571370e-03
  4.0459712e-03
 -9.2233755e-03
 -3.2969391e-01
  8.7921564e-03
 -3.7063987e-03
 -1.4280433e-02
  2.6972853e-03
 -5.0620274e-03
  1.5364792e-02
 -7.1806004e-03
  7.9136527e-01
  1.7216571e-01
  1.4325128e+00
 -1.3082283e+00
  7.7482665e-01
 -5.8600162e-03
 -4.5805704e-03
  1.0663852e-02
  6.3381805e-03
 -3.4239467e-02
  3.8644665e-01
 -1.5384708e-04
  2.3186219e-01
  1.2497228e-03
 -2.1942084e-01
  5.8685422e-01
  1.5152514e-04
 -1.4138628e-02
  1.5509324e-03
  9.6592158e-03
 -1.8375801e-01
  8.0036336e-01
 -7.6089794e-04
  8.5749440e-03
  1.0122225e-02
  5.9364844e-02
 -8.6236792e-03
  2.1260781e-03
  3.7167824e-03
 -2.9717076e-03
  5.9262347e-01
 -1.4203243e+00
 -2.5859922e-01
  1.2821968e-01
 -8.9013171e-01
  7.0213154e-02
  1.0361718e-02
  1.4938183e-01
  1.0889068e-02
  5.0866288e-01
 -4.2171269e-03
 -3.1543872e-01
 -1.3467206e-01
 -8.1030373e-03
 -2.5883889e-01
 -1.9990845e-02
 -8.0381949e-03
 -5.6055556e-03
 -2.0588927e-01
 -5.9223478e-03
 -1.2016244e-01
  7.3510401e-02
  4.7952726e-01
  2.8218983e-03
  1.4916388e+00
  6.9137275e-01
 -2.4617720e-02
 -1.5309444e-01
 -5.6528814e-02
 -1.0981042e-02
 -1.5597720e-01
  9.9586487e-01
 -1.5668300e-01
 -2.5470221e-01
  4.4142250e-02
  1.7665524e-02
 -1.1397055e-02
 -1.9661106e-02
 -1.1249388e+00
 -2.0626163e+00
  2.2151248e-01
 -5.0463021e-02
 -5.0282989e-02
 -1.4875246e+00
  1.4138833e-01
 -1.3016910e-02
 -1.4347905e-02
 -3.2873380e-01
  2.7710989e-01
  2.1330183e-03
 -4.5443416e-01
  9.0483744e-03
 -3.4945664e-01
  1.5600364e-02
  2.9178672e-03
  1.9084183e-02
  9.4445026e-04
 -2.6503748e-01
  1.6613196e-01
 -5.0951755e-03
  1.9067500e-03
 -1.1500400e-01
  1.6757579e-03
  1.7834158e-03
  8.3823854e-01
  2.2241605e-02
  2.6465224e-02
  1.7905143e-03
  8.5916981e-04
 -1.5513773e-02
 -1.3275661e-02
 -2.2560860e-04
 -4.4295424e-01
  5.2436616e-02
 -1.4991452e-03
 -3.1323514e-03
 -4.2883581e-05
 -2.0246039e-01
 -1.2602916e-02
 -3.4934906e-03
 -1.5420555e-02
 -1.1262858e-02
  9.2624584e-03
  1.5310326e-02
  3.9955508e-03
 -6.1181053e-03
  8.0093324e-02
  1.4125703e-02
  2.1348940e-03
 -4.7833817e-03
  5.3238883e-03
 -1.8047547e-02
  2.0681355e-02
 -9.5103839e-03
  2.9343864e-02
 -7.7363322e-03
 -7.8524149e-04
 -1.9543892e-02
 -5.0560744e-03
  1.5138452e-03
  3.0461784e-02
  3.9816131e-03
 -6.9347303e-03
 -1.1251807e+00
  3.9405585e-03
  1.5749729e-03
 -8.2825348e-03
  9.7924480e-03
 -4.1639182e-04
 -7.1850945e-03
  2.7185772e-03
  5.6870375e-03
 -5.7551381e-03
  7.2079333e-03
 -5.1889766e-04
 -3.4487590e-03
  2.9187528e-03
 -3.7011923e-03
 -3.2505577e-03
  3.8849839e-03
 -7.3904701e-02
 -1.8706106e-01
  3.2648996e-02
 -2.0020264e-01
  1.8723826e-01
  9.7599272e-03
  1.0719232e-02
 -9.9943690e-03
  1.2643035e-01
  2.6829646e-03
 -1.3997260e-02
 -1.8322926e-03
 -2.5503184e-03
  3.4643342e-03
  5.6088474e-03
  2.1672195e-03
 -2.3166675e-02
 -1.6865091e-02
  2.0447108e-01
  5.5950121e-03
 -4.8113079e-03
  2.0801213e+00
  1.0955065e-02
 -1.6684627e-02
  1.0700369e-02
 -2.7384488e-02
  1.2149923e-02
 -5.0029706e-04
  7.2761297e-01
 -1.7394560e-03
  3.4522943e-02
  5.5133906e-04
 -1.1580155e-02
  1.0996681e-03
 -1.9554669e+00
 -1.0001668e-03
  1.5191662e-02
 -3.9958698e-01
  1.1530832e-02
 -2.6365707e-03
  1.2588968e-02
  1.3993888e-02
  1.6236646e-02
  3.7416957e-02
 -9.1462107e-03
 -7.9193683e-03
  1.4613418e-02
  6.8567903e-03
  9.1670681e-04
 -6.9553958e-04
  9.9370754e-01
 -2.1296147e-02
 -1.3046950e-02
  1.8136157e-02
  7.9087824e-01
 -1.4720992e-02
  5.3111049e-03
 -4.2631081e-03
  1.0431140e-02
  1.8226950e-03
 -7.1275675e-01
 -3.2393482e-01
  4.4378567e-01
 -1.0308974e+00
 -4.6748364e-01
  8.5893851e-03
  9.2957448e-03
  1.9497221e-02
  3.0719556e-03
 -2.2808637e-03
  1.3082361e-01
  1.6141364e-02
  7.0220071e-01
  9.5815673e-02
  1.5202047e-01
 -1.6936520e-02
 -3.4743804e-01
  4.5111245e-03
  1.0864573e-03
 -2.2158347e-02
 -1.1045983e+00
 -1.4901363e-02
 -1.2174481e+00
 -2.9940122e-01
 -8.3488552e-03
 -1.2818225e-01
 -2.8245184e-03
 -6.5595685e-03
 -9.5715104e-03
 -1.0714781e-02
  4.2770961e-03
  1.9161767e-01
  9.0517169e-03
 -1.3416302e-02
  9.0620643e-01
 -2.0742349e-02
  1.3089385e-02
 -6.6345287e-03
 -1.0001115e-02
 -2.8992973e-03
 -5.5729687e-02
  3.8498591e-03
  5.8661288e-01
 -9.0035647e-03
  6.3582667e-04
  1.4408719e-03
  5.1911385e-03
 -4.2427296e-04
  6.5833703e-03
  9.9650584e-04
 -3.1118371e-02
 -2.7135590e-02
 -1.4486171e-03
 -1.6319628e+00
 -5.0411690e-03
 -2.6823942e-02
  5.6231203e-03
  9.7849891e-03
  2.0984983e-02
  1.7361118e-03
  9.5733875e-01
 -1.7271847e-01
 -6.8621945e-01
 -1.0125206e+00
 -1.6428557e-01
 -1.4199883e+00
 -4.3202955e-03
  1.7373593e-03
 -7.1875638e-01
  4.3321183e-01
  1.8464463e+00
  1.5183386e-02
 -7.0215970e-01
  1.1746566e+00
  7.4146473e-01
 -1.1936990e+00
  2.7522972e-01
  1.7754939e+00
 -1.2464343e+00
 -2.9099005e-01
  2.1359551e-01
  9.7860722e-03
 -4.8224274e-02
 -1.9508001e-03
 -3.9165109e-02
 -7.3966998e-01
 -3.3800617e-01
 -1.1148868e+00
 -6.9491682e-03
 -9.0044004e-01
 -3.1453392e-01
 -1.5507078e-02
 -8.6094690e-03
 -3.9862529e-03
 -8.7078124e-01
  4.9105504e-01
 -1.8354520e-02
 -2.0032130e-02
  4.1304477e-03
 -1.9756700e-03
  1.3378127e-04
 -2.4517084e-02
 -5.2925050e-01
  1.3931253e-02
 -6.0399389e-04
 -6.0456074e-03
 -3.6233747e-03
 -3.5852040e-04
  8.9970458e-04
 -3.0146383e-03
 -5.6558955e-03
  2.0172365e-01
  4.0671886e-03
 -7.2035184e-03
 -8.0861440e-03
 -1.3960406e-02
  3.7099323e-01
  1.1399310e-02
  6.0675065e-03
 -5.0558466e-03
 -5.5611140e-01
  4.9099636e-01
  3.9191276e-01
  5.2096188e-01
  5.3438193e-01
  2.5413403e-01
 -1.3781553e-02
 -3.8957613e+00
  1.5518029e+00
 -3.3397446e+00
  1.0878897e+00
  8.9873904e-01
 -4.4160134e-01
  7.7342480e-01
  7.7834499e-01
  3.1123767e+00
  6.0843289e-01
 -2.8697412e+00
  3.2199926e+00
  6.1399168e-01
  3.4878736e+00
 -4.3807885e-01
  8.0798888e-01
 -5.7800132e-01
 -2.3314595e+00
 -3.0120569e-01
  1.3365523e+00
 -6.0833955e-01
  1.4351053e+00
  5.2631444e-01
 -1.4582551e-02
 -1.4378190e-01
  6.8223560e-03
  2.2642573e-03
 -1.0013974e+00
 -3.6473926e-02
  1.8808253e-02
 -7.4676122e-03
 -1.3959019e-02
 -1.0064056e-02
  7.5223949e-03
 -7.0666275e-03
  4.7505577e-03
  5.7717185e-03
 -1.2108721e-02
  1.4362018e-02
  3.7631560e-02
  1.2212292e-03
  7.9621756e-03
  7.8987153e-03
  4.6964823e-03
 -9.6586952e-03
 -2.2582894e-03
  1.1024371e-01
 -3.4585364e-02
 -1.8638591e-03
 -1.0326684e-02
  3.6319390e-01
  1.7724606e-03
  3.7315944e-03
 -4.7714405e-02
 -1.4191090e+00
 -1.2361545e-02
  2.8093033e-02
 -2.8706871e-03
  8.1512546e-03
  2.4319211e-01
 -1.1952119e-02
 -3.2276628e-03
 -1.1318968e-02
  4.4443957e-03
 -3.1309135e-02
 -4.3480312e-03
  1.0226972e-02
 -4.9719298e-03
 -7.2444929e-03
 -6.6520926e-03
  1.6597119e-03
  2.6366373e-03
 -6.8887547e-03
 -1.4606932e-02
  1.2443990e-02
  1.5253310e-02
 -2.1199156e-04
  1.3088555e-03
 -9.0311095e-03
 -9.4083257e-02
 -3.6758634e-03
 -2.6283250e-03
  5.7387450e-03
 -2.6894765e+00
  1.4120159e-02
 -1.8169975e-02
 -1.7108100e-02
  3.2722872e-01
  1.1918950e-01
 -2.8720391e-01
  3.5866269e-01
  3.7883419e-01
 -1.9289464e-01
 -1.0748086e-01
  4.7098432e-02
  1.3967538e-01
  6.4388388e-03
  1.3299586e+00
  8.5857414e-02
 -1.1302418e-01
  4.7072706e-01
  5.6269842e-01
  1.2814581e-01
 -1.7470565e-03
 -1.0201271e-02
  4.9450113e-03
  1.1257045e+00
 -2.9801315e-02
 -1.8319650e-01
  1.2540144e-02
  4.9397665e-01
 -2.7069673e-02
 -4.7774386e-02
 -4.2992988e-01
 -1.3696341e-01
 -1.1252663e-01
 -7.6859069e-01
 -6.9314402e-01
  4.2834616e-01
  7.2270316e-01
 -8.0889231e-01
 -1.6402755e+00
 -1.2452334e+00
 -4.0379125e-01
 -5.8188474e-01
  5.4947448e-01
  4.2162505e-03
 -8.8835657e-01
  4.2281494e-01
  1.1189494e+00
 -2.6673344e-01
  8.4372044e-01
  1.9625382e+00
 -8.8198204e-03
 -1.4827818e-01
  1.1500495e-01
 -6.0242373e-01
 -4.6066612e-01
 -2.4039496e-01
  3.0389050e-01
  5.8995897e-01
  1.8258762e-01
  9.4214618e-02
  1.5200405e-01
  3.2427251e-01
 -1.2517538e+00
  4.2746991e-01
 -7.2215611e-01
 -1.9412528e+00
  1.8542669e+00
 -1.5512429e+00
 -1.1939226e+00
 -4.2346087e-01
 -1.0235152e+00
 -1.4119612e+00
  3.4603667e-01
  8.1234127e-01
  1.2215178e+00
 -1.8316371e+00
 -1.1692854e+00
 -6.6558766e-01
 -5.2922583e-01
 -6.7880072e-02
  1.0049785e+00
  1.0979881e+00
 -2.6379572e-02
 -2.4627612e+00
 -7.7224284e-01
 -5.2838618e-01
  1.8463963e+00
  8.1387907e-02
  1.6762441e-01
 -1.0060894e+00
 -1.7849192e-02
  1.3592640e+00
 -3.1375074e-01
 -7.1629810e-01
  3.2031590e-01
  1.1458295e-02
 -3.8238603e-01
  3.3121221e-03
 -1.2023889e-02
  6.3836407e-03
 -5.7507145e-01
  9.5793642e-02
 -1.2484738e-01
 -9.8217118e-01
 -1.3310666e+00
  1.9018748e-03
  6.8009311e-01
  1.1839663e-02
  5.9280658e-01
  1.3502524e+00
 -1.3308833e-02
  2.9226205e-01
  2.6070047e-02
  6.3255900e-01
  9.1297822e-03
 -9.6357368e-02
 -1.5616408e-01
 -1.3600902e-02
  5.5976367e-01
  2.2325292e-02
 -3.1646485e+00
  8.5139498e-03
  2.3520031e+00
 -1.0587878e+00
  2.1787721e-01
 -4.5407567e-02
  1.6457303e+00
 -1.7231522e-02
 -2.9502553e-01
 -8.5039651e-03
  1.3622493e+00
  2.1526287e+00
 -5.6731355e-01
  3.5019106e-01
 -2.3418766e-01
  1.3626317e-02
 -1.3765426e-02
 -1.1222874e-02
  1.4746846e-02
 -4.1288249e-03
  5.0918287e-01
 -8.2912630e-01
 -1.7987803e-01
 -2.8315298e-02
 -3.4747171e-04
 -4.9826711e-02
 -7.9264544e-02
  1.5954155e-02
  3.8080594e-01
  3.9907269e-02
  5.9723341e-01
 -6.0399467e-01
  7.9616182e-02
 -1.2646596e+00
 -1.2752626e+00
 -6.7752339e-02
 -3.4468827e-01
 -2.9088685e-02
 -3.9442721e-01
 -1.3987727e-02
 -1.6066324e-02
  9.8242646e-01
 -9.3587071e-01
 -1.0397935e+00
  8.4121603e-01
 -2.9712030e-01
 -9.9634603e-02
 -1.6467441e-03
 -8.5789226e-02
 -1.1051692e-01
  2.8666481e-01
  8.1622571e-01
  4.9070540e-01
 -9.8302972e-01
 -4.8810458e-01
 -2.8420129e-01
 -8.6677152e-01
  4.2893946e-02
  1.7967746e-02
 -7.5055556e-03
 -1.1961170e-01
  6.7296177e-02
 -2.3274159e+00
 -6.4784363e-02
 -5.1843315e-01
 -5.3264391e-01
  5.1121187e-04
 -9.6602639e-04
 -1.3798159e+00
 -1.8598333e-03
 -2.3123533e-03
 -9.0138949e-03
  1.0004874e-02
  2.8387942e+00
  4.1463384e-03
  1.2538505e-02
 -2.7057618e-01
 -3.9327823e-02
  6.1015662e-02
 -1.7054224e-02
 -2.4776375e-02
  4.8602346e-02
 -3.8683610e+00
  1.4767364e-03
  1.2761928e-02
  1.4261002e-02
 -1.2415091e-02
 -5.6454544e-03
  1.5297544e-02
 -1.5859647e-03
 -1.4345958e-02
 -2.0740399e+00
  1.3230383e-02
 -2.4802117e-02
  1.2643803e-03
  1.5899394e-02
  2.2833630e-02
  2.9128805e-01
 -6.6956892e-03
  1.3442419e-02
 -7.5200247e-04
  3.6563349e-03
 -1.3020621e-02
 -2.8185802e-02
 -8.7347357e-03
  1.3090753e-02
  1.4520474e-02
  1.1282842e-02
  7.9866918e-03
 -2.0300897e-02
 -5.3562731e-03
 -4.8986757e-03
 -8.9575807e-03
  2.4604766e-01
  2.5195191e-03
 -6.8044690e-03
  1.1094244e-02
  1.0310133e+00
 -7.0696772e-04
  7.6915654e-03
 -2.8668700e-03
 -8.3127797e-02
 -2.2500035e-01
 -3.6082336e-01
  5.3447153e-02
 -5.6761323e-04
 -4.3656933e-03
 -4.9583763e-03
  4.2832676e-02
 -3.4497738e-02
 -5.0126612e-03
 -1.6993861e-01
  1.4643688e-02
  5.1309440e-02
 -1.7392464e-02
 -9.9742450e-03
  1.4428735e-01
  1.5189852e-02
 -1.2647378e-02
  1.2294540e-02
 -1.0098549e-02
  3.9509654e-01
 -6.2681776e-03
 -9.9878171e-03
  1.2971300e-02
 -9.9454438e-03
  1.4671889e-03
 -1.5298487e-02
 -7.7790283e-03
 -4.2107361e-03
  6.9687450e-01
  2.8937495e-01
  2.4694866e-01
  1.1796269e+00
 -1.1395390e+00
 -1.8437665e-02
 -3.0033991e-01
  1.3409640e-02
  2.9556486e-01
  1.1800089e-02
  2.9630768e-01
 -1.9458377e-01
  5.1497449e-03
 -6.6956938e-03
  6.3420343e-01
 -1.2331294e+00
 -1.6886626e+00
 -8.7206038e-03
 -1.4717805e-03
 -4.2696904e-02
 -1.1084948e+00
 -4.3429911e-01
  1.0923576e-02
  2.1996627e-02
 -4.2141248e-02
  7.6282680e-02
 -1.6799817e+00
 -1.3065951e+00
 -3.1903348e+00
 -1.3313691e-02
  6.4192402e-01
  1.6302837e-01
 -6.9237971e-01
  7.5877130e-01
  3.0126581e-01
 -1.5909161e-01
 -9.9260825e-01
  3.2665715e-02
  3.5985091e+00
  5.7977575e-01
  3.2922304e-01
 -1.9614358e+00
  8.9559788e-01
  1.9686171e+00
  1.1228663e+00
 -1.9210999e-01
  4.7234622e-01
  4.3872513e-02
  1.8431028e+00
  2.4369802e-02
  6.9538081e-01
 -1.7313899e-01
  1.7394915e-02
  4.6753338e-01
  8.5693240e-01
 -2.6348004e-01
  5.4582667e-01
  5.6259643e-04
 -9.2412256e-02
 -1.3456321e-02
 -2.0492764e-01
 -7.0330882e-01
  9.5973834e-02
 -1.1872057e-01
  1.3709824e-01
  1.2178126e-02
 -2.8758845e-04
  1.6639128e-02
 -2.8055899e-03
  5.1821768e-03
 -4.5046904e-03
 -1.1982768e-01
 -2.3582490e-02
 -1.8677164e+00
  5.6869551e-03
  4.1236751e-02
 -5.1954365e-03
  1.0361650e-02
 -3.1095322e-03
 -2.9518456e+00
  2.7382880e-02
 -8.7162078e-04
  7.0290999e-03
  8.8973744e-03
  2.0722062e-03
 -1.3669744e-02
  9.8765539e-03
 -2.0556532e-02
  1.3288157e+00
  1.0399116e-03
  4.7748053e-01
  6.7769444e-01
  2.7982217e-01
 -1.7721064e-01
  6.4012423e-02
  2.9644486e-01
 -7.8325629e-01
  7.9430038e-01
 -1.0615881e-02
  3.4679106e-01
 -4.8744276e-01
  6.8583882e-01
  4.6582013e-01
  1.1008221e-01
 -2.5429055e-01
 -2.1306430e-01
 -1.3839741e+00
 -4.9490407e-03
  5.5038673e-01
  2.2844989e-03
 -2.0462904e+00
 -9.6036518e-01
  5.1346362e-02
 -6.5273327e-01
 -4.0367097e-01
  2.3292835e-01
  2.0866370e-02
  1.3101206e-02
  3.9141330e-01
 -2.1005878e-02
 -6.7163759e-01
 -9.3321043e-01
 -2.4640757e-01
  9.7732401e-01
  6.0442947e-02
 -1.6625300e-02
 -4.9762899e-01
 -3.0830070e-02
  2.2438474e-02
 -1.0602161e-02
  3.6220834e-01
  8.9297020e-01
 -1.0087292e+00
  9.3128383e-01
  4.1997388e-01
 -8.4051760e-03
 -2.5097389e+00
  1.3731644e-02
 -5.4745365e-02
 -2.5474748e-01
  4.6188590e-01
  7.5163460e-01
  1.2437713e-03
  2.4217344e-03
 -2.0088745e-02
 -6.0211956e-03
  7.0629893e-03
 -8.5613807e-04
  1.6722220e-01
  1.9358283e-02
  2.7384819e-02
  1.8271366e+00
  1.7900034e+00
 -4.8375064e-01
  1.4112735e+00
 -6.0573858e-03
  3.5217953e+00
  3.6536248e-03
  6.4860129e-01
  1.4704046e-02
 -4.1464660e-01
  2.2113965e+00
  9.0560414e-02
 -1.5745643e+00
 -4.5848843e-01
 -5.2443653e-01
 -1.7563374e-01
 -3.0498642e-02
 -1.3981383e-01
  1.5048063e-01
  3.8883448e-01
 -8.7220281e-01
 -1.6225795e-03
 -1.6256027e+00
 -5.0712442e-01
 -1.4821442e-02
  5.2177846e-01
  4.7381511e-03
 -7.9761982e-01
 -7.7620503e-03
 -6.7526340e-01
  4.6532369e-01
 -9.4788766e-01
  2.2288220e+00
 -1.6066836e-01
 -4.7973309e-02
  2.4173942e-01
 -5.9454050e-03
  3.0972707e-01
 -5.8399409e-02
  3.2601985e-01
  5.2721125e-01
 -1.9537902e-02
  9.5277160e-01
 -6.0328293e-01
 -2.1702595e-02
 -1.4421735e+00
 -1.5760388e-02
 -5.2300340e-01
 -2.3749178e-02
  6.7060894e-01
 -1.5318699e-02
  1.1662079e-02
 -4.8819929e-01
 -6.9742016e-02
 -6.3944901e-03
  8.3802223e-01
  9.0076923e-03
  1.1565560e+00
 -4.3287095e-02
 -1.1068597e+00
  4.0717357e-01
  1.2828271e+00
 -1.8080786e-01
  8.7142497e-02
  7.3582582e-02
 -3.1411209e+00
 -6.3810433e-04
  2.4201739e-01
  1.6941758e-02
  1.6368587e-01
  1.1215705e+00
  2.3750935e-01
  9.4955593e-02
 -5.1824534e-01
 -6.9551490e-02
  1.4445493e+00
 -3.4759478e-03
 -1.9215326e-03
  2.4238341e-03
  2.6817830e-02
 -1.6643200e+00
  2.3655472e-02
 -1.0280526e+00
  2.0965580e-02
  6.2195998e-01
  1.0432847e+00
 -2.4656533e-01
 -3.7854409e-01
  6.9068140e-01
 -3.4561041e-01
  1.0733542e-01
 -1.3562538e-02
 -1.2801137e-02
  4.7576192e-04
  9.5035887e-04
 -6.3883042e-04
 -1.4149829e-02
  6.0627623e-03
  2.8126030e-03
 -2.6618573e-01
 -6.6993263e-04
  7.3235191e-04
 -7.2491826e-03
 -1.4988610e-02
  6.1260867e-03
 -4.9039340e-03
  1.4031518e-02
  1.1465264e-02
 -6.6460236e-03
  2.6451247e-02
  1.6302351e-02
  5.0635915e-02
  1.8522142e-04
 -6.0438123e-03
 -9.1533326e-03
 -2.7784459e-02
  9.3989251e-03
 -7.0825657e-03
 -4.1453321e-03
  7.8639346e-01
  2.6752812e-01
  3.2139108e-02
 -6.9456948e-03
 -3.6143962e-02
  1.0363324e-02
  7.7123212e-04
  9.3445599e-01
  8.0462089e-03
  9.2713255e-03
 -1.2887990e-02
 -1.6036093e-04
  4.4210125e-02
  7.6401919e-02
  2.3392955e-02
  6.8043950e-03
  1.6560188e-02
  2.2157016e-03
  2.8490208e-03
  3.3723887e-02
  6.3925269e-03
 -3.0857469e-03
 -7.6491111e-03
 -3.5696451e-03
 -1.2695744e-02
 -6.8401243e-04
 -1.2092186e-02
  2.9810926e-02
  5.4511249e-01
  7.3043914e-03
  1.5185979e-01
  1.5689270e-01
 -1.7214687e-01
 -5.5561387e-03
 -2.8441861e-04
 -7.8921439e-03
 -2.1299258e-02
 -3.0093710e-03
 -6.0975362e-06
  1.5449459e-03
 -2.2128850e-02
 -2.5585690e-01
  1.2364094e-03
 -1.0397487e-01
 -9.3210548e-02
  3.1905661e-03
  3.3734620e-02
 -1.5112306e-02
 -8.7199174e-03
  6.7064804e-03
  9.2065977e-03
  6.4645357e-02
  8.1508921e-04
  5.8811023e-03
 -9.1449730e-03
  4.4030799e-03
 -8.2943290e-03
  6.8903062e-03
 -1.1027838e-02
  1.7279018e-02
 -1.2285193e+00
  3.2596879e-02
  1.5574528e+00
  2.7763188e-01
 -8.6077958e-01
  8.2160987e-02
  1.0019287e-01
 -7.4677420e-04
 -1.6806082e+00
 -3.4173670e-01
  2.4811877e-01
 -2.2754652e-02
  2.7108857e-01
  2.5565032e-02
 -1.5423264e-01
 -4.5476329e-01
  1.1798970e+00
 -5.3924795e-02
 -3.3652695e-04
 -7.6392412e-01
 -7.0888376e-01
  6.1698157e-01
  5.4434482e-02
 -4.8138627e-01
 -4.5052034e-01
 -9.2371333e-01
 -2.1314776e-01
  4.7475114e-02
  2.4818113e-01
 -7.6662965e-02
  2.0389578e+00
  4.4366056e-01
 -5.6462914e-01
  1.0139320e+00
  8.6289011e-02
  5.2467698e-01
 -3.4759977e-01
  2.1390414e-01
 -1.1693069e-03
  5.0959550e-03
 -4.0570661e-01
  2.9105970e-01
  3.2395909e-03
  2.1672767e-01
  6.3172734e-01
 -5.9982583e-02
 -9.7475111e-01
 -1.4784096e-01
 -8.3901751e-04
 -1.7543320e-02
 -5.4501092e-01
  1.5396926e-01
 -6.4646490e-03
 -3.1572497e-01
 -2.7827764e-02
  4.5008829e-01
  7.0779309e-02
 -1.6611271e-03
  2.7462119e-01
 -1.4599691e-02
 -4.6556357e-01
  7.3140778e-02
  3.6794075e-01
  8.6257255e-01
 -1.4690483e-01
  2.9501453e-02
 -1.0028372e-02
 -4.4786641e-03
 -7.6403177e-01
 -1.2491681e-01
 -6.0730882e-02
 -2.9984750e-02
  1.2478882e-02
 -3.9514950e-01
  2.1450700e-02
 -4.9671093e-03
  2.2218837e-03
 -5.1865634e-03
  2.5540486e-01
  1.9062665e+00
 -6.6804796e-02
  3.2302088e-01
  8.0566499e-03
 -2.5008133e-01
 -9.4123852e-01
 -1.0853720e-01
 -3.9704379e-01
  4.3457705e-03
 -1.6874559e-02
 -7.4931835e-03
  3.0039381e-03
 -1.4254490e-03
 -2.3947721e-02
  3.5817628e-03
 -2.6687006e-03
 -1.1481674e-02
 -9.4199432e-03
  1.7968396e-03
  4.6375594e-01
 -4.5820422e-02
 -5.7593085e-02
 -7.9280976e-03
  1.3131735e-02
  5.0928420e-04
 -3.0651349e-03
 -2.6891412e-02
 -1.9026000e-02
  2.1970132e-02
 -1.3158941e-02
  9.3576033e-03
  2.6482088e-03
  1.4610919e-02
 -4.8274684e-01
  1.9228064e-04
  1.2303310e-01
 -1.1693147e-02
  4.3281042e-03
 -5.0375932e-03
 -5.1535936e-03
 -8.8580366e-04
 -1.1778923e+00
  4.0258873e-01
 -4.4551051e-01
 -4.1368831e-02
 -1.0865999e-01
  2.3673515e-01
 -1.1490176e-02
  5.8839372e-03
  5.7959487e-03
  2.1356974e-02
  3.5061848e-03
  2.6141122e-01
  8.5415337e-03
 -7.2836317e-02
 -9.3546603e-03
 -1.0678293e-03
 -3.0309862e-02
 -2.1569176e-02
 -7.3119849e-03
  3.7612230e-02
 -1.9989696e-01
  3.8574278e-02
 -2.9236177e-02
 -7.1289875e-03
 -9.3453554e-03
 -4.5155659e-03
  1.6160537e-02
  7.5556606e-04
 -9.6398927e-02
 -2.9243192e-02
  6.2458328e-04
 -1.0001264e-02
  4.3531996e-03
  9.9572306e-03
 -1.3116718e-02
 -6.4091138e-03
  1.9570395e-02
  2.0419399e-03
 -1.1142622e-03
 -3.1758191e-03
  2.6649993e-03
 -9.5743909e-03
  1.5069817e-02
  4.5969812e-03
  1.1244703e-02
  1.5201719e-02
 -4.5745480e-03
  3.8546184e-03
  6.6502282e-04
  2.1556228e-01
  9.1051850e-03
 -1.6725371e-02
 -7.9559190e-03
 -7.2553069e-03
  4.2258315e-03
 -9.2897583e-03
  6.3610827e-03
 -3.0248130e-02
 -6.3816542e-03
  7.5282045e-03
 -1.7459076e-02
 -1.7866053e-02
 -1.0647424e-02
  1.2682542e-02
 -2.2451038e-02
  4.3578348e-03
  3.8200484e-03
 -2.3881899e-02
  7.6860265e-04
  1.5818205e-02
  7.3011059e-01
 -4.9837618e-03
 -7.6330835e-03
  6.7599802e-03
 -7.5851907e-03
  1.5203294e-02
  2.8266083e-03
 -1.9521425e-02
  2.2968643e-04
  2.4458475e-03
 -5.8923271e-02
  4.4357618e-03
 -3.6999364e-03
  1.5428292e-02
  6.6933841e-02
 -2.5718864e-03
  8.7924376e-03
  6.0215211e-01
 -7.7686519e-03
 -8.1561645e-03
 -1.5133991e+00
 -2.1726899e-01
  4.4906160e-01
  5.3038388e-01
 -8.9390558e-01
 -1.4204586e+00
  9.9077219e-01
 -8.7070143e-01
 -2.6919213e-01
 -4.3907711e-01
  7.5969182e-02
 -5.3630441e-02
 -6.9279480e-01
 -1.7121357e-01
 -1.1671746e+00
 -2.4810338e-01
  1.3354158e+00
 -5.3984147e-02
 -1.2056142e+00
 -1.4312675e+00
  5.7022190e-01
  8.9372838e-01
  3.4251752e-01
  1.4621935e+00
 -3.4781480e-01
  1.5986979e-01
 -8.4586114e-01
  3.6618406e-01
  7.4798042e-01
  1.8956524e+00
 -1.7690800e+00
  1.0391052e+00
 -1.6222947e-07
  3.5388783e-01
  3.8420114e-01
  3.7769001e-02
 -6.2378976e-02
 -1.0090346e-01
  2.5610843e-01
  1.1016327e+00
 -6.3026583e-01
 -4.7337994e-01
 -5.8557922e-01
  5.4484028e-01
  1.1078020e-01
  2.1689704e-01
  4.4262087e-01
  3.2900725e-02
 -7.0020813e-03
  1.2096842e-02
  9.6775109e-01
  1.4618218e-01
  8.0671925e-03
  9.0781534e-01
  3.5675168e-02
 -5.3732377e-03
  3.1837493e-01
 -7.8531448e-03
  2.7864483e-01
  1.8329965e-02
  1.9640886e+00
 -4.4163555e-01
 -4.3091945e-02
  1.4191540e-01
 -4.5495802e-01
 -1.2875800e-02
  1.0570014e-02
 -1.2303641e-02
 -1.2696969e-02
  2.2228939e-02
 -1.8641645e-02
  3.7731500e-03
  6.3967490e-01
 -6.6763878e-02
  7.2059999e-03
  8.6446631e-01
  7.8584766e-03
  6.2352479e-03
  1.8843752e-03
 -4.8353248e-03
  8.2507562e-03
 -5.0571090e-01
  1.5656204e-05
  3.0631986e-01
 -1.0202142e-02
 -4.0426198e-03
 -2.9590388e-03
 -2.3470235e+00
  8.2246652e-03
  1.5676474e-02
  1.2182647e+00
 -1.4792330e+00
  5.1525468e-03
 -1.0854331e+00
  5.3216177e-01
 -8.8053616e-03
 -1.5015537e+00
  2.7342557e-03
  3.8225872e-03
 -5.4636500e-03
  5.8570048e-03
 -7.7494286e-04
  4.4475729e-03
 -3.0350974e-01
 -1.2861481e-02
  1.0167244e-02
 -8.6255260e-02
 -2.2531246e-01
  1.0105536e-03
 -1.3402215e-02
  2.3832971e-03
 -4.4867197e-01
  2.9738217e-03
 -1.1946332e-02
 -5.6814063e-01
 -7.1648438e-03
  2.8447751e-03
  1.3938062e-02
  7.3750974e-03
 -4.2793170e-02
  2.1241580e-01
 -1.0946784e+00
  1.3647027e-01
  1.7698206e-01
 -2.4489636e+00
  2.1834311e+00
  1.0352086e+00
  3.5696223e-03
 -1.2914383e-02
 -2.5785051e-03
  3.0429229e-01
 -7.4975364e-02
 -2.3190306e-01
  1.2140741e-01
 -1.1262014e+00
 -4.5973584e-03
 -9.4171065e-01
 -4.9006422e-03
 -1.1442313e-01
  3.4673759e-03
  2.2074899e-02
 -3.1947047e-02
 -3.0382557e-02
 -3.7345964e-01
 -2.1181244e-03
  1.1079524e-02
 -2.4427813e-02
  7.6767309e-03
  3.1134740e-01
 -2.5377125e-01
  1.2063035e+00
  4.9306503e-01
 -1.2527697e+00
 -9.4415814e-01
  1.4477567e-02
  2.0053327e-02
 -5.7776558e-01
  9.6679735e-01
  7.0294821e-01
  7.5730425e-01
  1.4735318e+00
  4.6002004e-01
  1.6731811e+00
  1.6816324e+00
  4.2416230e-02
 -4.7214359e-02
 -2.0218685e-02
 -9.2900486e-04
  1.1675987e+00
  1.3813242e+00
 -3.1253242e-01
  5.7734796e-03
  5.3908557e-01
  1.5339074e+00
  8.2950247e-03
 -6.0923493e-01
 -2.3042130e-01
 -3.3350852e-01
  2.9666537e-01
 -1.4548707e+00
 -8.4307235e-01
  1.7577694e-01
 -6.3246995e-01
 -8.1836754e-01
  3.7043158e-02
  1.9003740e-01
 -6.5146238e-02
 -2.9867652e-01
  4.1090342e-01
 -3.3649471e-01
  4.7878280e-01
 -1.1042681e+00
 -1.9736771e-01
 -3.3110380e-01
  1.1746134e+00
  1.1528555e-02
 -6.4621419e-02
  3.7252497e-02
 -6.7461264e-01
 -8.7763530e-01
  2.6163664e-01
  1.1471834e-02
 -7.2821295e-01
  2.7167177e-02
 -2.4955065e-03
 -9.8951495e-01
  2.0916280e-01
 -8.1980509e-01
  2.3295526e-01
  1.3350495e+00
  6.2273393e+00
  5.6838709e-01
 -2.1720186e-01
  6.5488404e-01
  1.0990535e+00
  2.9314566e+00
  7.8296375e-01
  2.8348258e-01
  1.0475586e-02
  1.6170269e+00
 -1.9320108e-01
  1.6349270e-03
 -1.9616654e+00
 -4.7228616e-02
 -4.1687289e-01
  8.8875949e-01
 -3.3249331e-01
  9.2729974e-01
  1.3198878e+00
 -6.6346890e-01
 -3.0387917e-01
 -1.2897986e+00
  1.1318733e-01
 -1.2072214e-01
 -6.6926491e-01
 -2.0384734e+00
 -2.8134766e-01
 -1.0048892e+00
 -2.2092054e+00
 -5.6644183e-01
 -1.6996124e-01
  9.8951977e-01
 -5.4614484e-01
  1.4268577e-01
  8.3956443e-02
  1.0755372e+00
  7.2233683e-01
  1.1980305e+00
 -3.9382556e-01
 -2.8707230e-01
  1.2122944e-01
 -1.3356761e+00
  1.2239943e+00
  1.2553558e+00
 -2.3979950e-01
  1.4428174e+00
  4.0021788e-02
 -2.4507092e-01
  9.7515142e-01
  8.0827588e-01
  1.1129753e-01
  5.5944830e-01
  7.9741150e-01
  2.8101262e-01
 -8.3479393e-01
 -1.9511756e-01
  2.1822490e-02
  7.4589574e-01
 -4.4313765e-01
 -1.4059668e+00
  4.8131657e-01
 -1.0870432e-01
  1.9151570e-01
  3.4956574e-01
 -2.7262551e-01
  7.9467690e-01
 -8.7872612e-01
  9.5571518e-01
  1.4553741e+00
 -2.4570179e+00
  8.6132175e-01
  1.3063847e+00
  4.8172879e-01
 -4.9093422e-03
  8.3579281e-03
 -1.9831508e+00
  2.7628172e-02
 -1.7932785e-01
 -5.3509563e-01
 -5.7702953e-01
 -1.7353728e+00
 -1.1063488e+00
  4.6917328e-01
 -1.0607709e+00
  5.3495538e-01
 -7.8089410e-01
 -3.2000893e-01
  8.1032848e-01
  7.2939330e-01
 -3.4774318e-01
  5.0114315e-02
 -1.9967221e+00
 -9.2109025e-01
  1.2098591e+00
 -1.4324549e-02
 -1.5581997e-01
 -1.5150094e-01
  9.3053168e-01
 -1.9846725e+00
 -5.2375460e-01
  1.5120930e-02
 -3.7304450e-02
  1.1361040e+00
 -8.6248778e-02
  1.9851296e-01
 -3.1340730e+00
  4.4464985e-01
 -1.7833074e+00
 -1.5215189e+00
 -2.7933976e-01
 -5.3758109e-01
  7.4177700e-01
  1.4980252e-01
  1.1944270e+00
  1.1039821e+00
  4.9009210e-01
  4.1802326e-01
  5.3235394e-01
 -2.4296846e+00
 -5.6033397e-01
 -4.7842566e-02
  1.1044996e+00
  2.2274208e+00
  8.6529434e-01
 -1.1529627e-01
  2.2994521e+00
  1.9450074e+00
 -2.9588422e-01
  4.0094766e-01
  2.5189123e-01
  6.5140873e-01
 -2.4130819e-02
  2.1464422e+00
 -1.3124467e+00
  1.4567569e+00
  1.6208808e-01
  6.7318428e-01
 -7.1299559e-01
 -5.8172828e-01
  5.3968336e-02
  5.7253474e-01
  2.8747499e+00
  6.2426770e-01
 -6.0232222e-01
  5.4526472e-01
 -1.4500144e+00
 -1.1501510e+00
  3.6472711e-01
  6.6593361e-01
 -8.3408529e-01
 -2.3795815e-01
 -7.4039638e-02
 -9.0686125e-01
  3.1479158e+00
 -3.0412111e-01
 -1.3398403e-01
 -9.7162586e-01
  5.3576183e-01
  1.2966286e+00
  2.1314650e+00
 -1.7696708e+00
 -2.8116724e-01
  1.9001004e-01
  7.2316974e-01
 -1.0550859e-01
  1.4769815e-02
  1.0258583e+00
  1.0158735e-02
 -1.2947201e+00
  4.4998068e-01
 -2.2578990e+00
  1.3968753e+00
 -1.1006607e-01
 -7.5915009e-01
 -2.6722424e+00
 -2.1586576e+00
  2.0403290e+00
  7.9131156e-01
  1.4791086e+00
  2.1795621e+00
  2.0227230e-01
  1.5682013e-01
  1.9578193e-03
 -4.5216724e-01
 -3.5929644e-01
  1.2065001e+00
 -2.8170806e-01
  2.9684746e-01
  1.3755684e+00
  6.6649902e-01
 -1.4318656e+00
  2.8182465e-01
 -3.0168729e+00
  1.1362633e+00
  2.2247522e+00
  1.1577780e+00
 -1.8953748e+00
 -3.8770941e-01
  9.1285729e-01
 -2.5772500e-01
  2.4059970e-02
 -2.6630375e+00
 -9.6023053e-01
 -2.1904980e-01
  1.6692413e-01
  6.0800608e-02
  1.2766887e+00
 -2.1885145e-01
  1.1576235e-02
 -3.1223623e-02
 -1.6364616e+00
  4.7613360e-02
  6.7154847e-02
 -1.3027141e+00
 -7.3143309e-01
  7.7794856e-01
 -1.4996197e+00
 -8.5827127e-02
  8.1637070e-02
  9.3044353e-01
 -1.3177564e-02
 -1.0242253e-01
  2.1868298e+00
  2.6763919e-01
  1.9558222e+00
  1.1849114e+00
  8.7545365e-01
  3.6846235e-01
 -9.9154079e-01
  9.4108868e-01
 -1.2707864e-01
 -1.9812724e-01
 -1.8365548e+00
 -1.3751147e+00
 -4.9872425e-01
 -2.7614629e-01
 -4.4716331e-03
 -1.0533614e+00
  1.8737972e-02
 -1.1166210e-01
  1.2828520e-01
  1.9249436e-02
 -1.5936818e+00
  3.8382056e-01
 -3.8041911e-01
  6.6558480e-01
  1.2674539e-01
  8.1116363e-02
 -2.0022690e-01
 -1.6604882e-01
  1.7191178e+00
  2.9195055e-01
  9.6160382e-01
 -1.1192977e-01
  1.2656515e-02
 -3.0819258e-02
  6.7235112e-01
  1.3409755e-01
  5.1385325e-01
 -3.0970540e+00
 -1.5778210e+00
 -2.6260576e+00
 -5.4887998e-01
 -5.3645286e-04
 -2.2474136e-03
  9.1717893e-01
  8.2687443e-01
  5.2089834e-01
  1.0272056e+00
 -4.8338994e-02
  1.6335383e-01
  6.2721157e-01
 -1.1058267e+00
 -8.9324868e-01
  1.4045397e+00
  1.0067767e+00
  5.3136665e-01
 -3.2228184e-01
  6.9526243e-01
  5.8296031e-01
 -1.4025012e-01
  1.3509601e-01
 -1.6170754e-03
  2.4542604e-02
 -1.1938334e-02
  1.6043581e+00
  1.5042070e+00
 -9.3181020e-01
  1.0161966e-01
  7.7285820e-01
  1.1337546e-02
  3.6235504e-02
 -5.8015680e-01
 -6.4936690e-02
 -6.5870410e-01
 -4.9649677e-01
  1.4720018e+00
  1.0760614e-01
 -9.9252903e-01
  3.0121052e-01
 -1.8205126e-01
  1.4886042e+00
 -3.2185391e-02
  1.3835037e+00
 -3.3867726e-01
  2.2830054e-01
 -1.9280493e-01
 -6.5933323e-01
  4.9441452e-03
  7.2334695e-01
 -4.1295031e-01
 -5.6080979e-01
 -8.3733708e-01
 -7.9504150e-01
  3.4498349e-01
 -6.9931751e-01
  2.1190446e-02
 -1.3270447e-02
 -1.9638981e-01
  2.3521371e-01
  5.4455906e-01
  8.7137800e-01
  1.2117000e+00
  1.2285246e+00
 -6.3618827e-01
  5.2886182e-01
 -8.9450145e-01
 -9.5178843e-01
 -1.6598748e+00
 -1.9814128e+00
  5.5193174e-01
 -3.4470144e-01
  2.7993974e-01
  1.3255304e+00
  2.4594523e-01
 -2.3145745e-02
 -7.5573862e-01
  6.9029786e-02
 -8.2070939e-04
  1.2104303e+00
 -1.2599854e+00
 -1.6633521e+00
  2.5124638e+00
  8.9296156e-01
  1.9771717e-02
  2.6995840e-02
 -3.6253962e-01
  4.5220545e-01
 -1.9138353e+00
  8.4019321e-01
 -4.1311142e-01
 -1.1809407e+00
 -2.7466347e+00
 -1.0085259e-01
  3.8458174e-01
 -2.3728651e-01
 -5.8644288e-03
 -1.0811806e+00
 -1.7034833e+00
 -2.5055838e+00
 -4.6914017e-01
  2.0240061e-01
 -3.2287605e-02
 -8.0735320e-01
  5.3131455e-01
 -2.1087284e+00
  1.3806799e-01
  6.9040591e-01
  3.9294204e-01
  2.4442865e-01
 -1.1642757e-02
  2.0891465e-01
  6.4422715e-01
 -7.8339392e-01
 -1.8126770e+00
 -1.4278798e+00
 -1.1511393e+00
  1.3437812e-01
 -7.7291781e-01
  1.1694094e-01
 -8.0493701e-01
  2.0208551e-01
  9.0421563e-01
 -5.1864839e-01
 -8.4898405e+00
 -8.6157668e-01
 -3.1995815e-01
 -1.8016981e-01
 -6.7716867e-01
 -5.6881613e-01
 -1.8045870e+00
 -1.2309959e+00
  6.4164025e-01
 -1.1234858e+00
  1.8346663e-01
 -2.6364664e-02
 -9.6868229e-01
  2.0385411e-01
  4.2478685e-04
  1.1226525e+00
 -3.1010154e-01
 -1.8485643e+00
 -9.7138286e-01
 -1.0979998e+00
 -1.5573100e+00
  1.0317339e+00
  1.2364385e+00
  1.5167055e+00
  2.5751376e-01
  2.1078496e-01
 -1.3072358e-02
 -7.1808946e-01
 -4.5480895e-01
 -8.4596235e-01
  1.2277577e+00
  5.2803811e-03
 -2.6647560e-04
 -3.6963415e-01
 -3.0461180e-03
  9.3726292e-03
  8.2619882e-01
 -1.6632274e+00
  2.1952836e-01
  1.0370259e+00
  9.8415869e-01
  1.2616293e+00
 -1.8016362e-01
 -2.3085294e+00
 -1.4786085e+00
 -8.9149094e-01
 -3.2496531e-02
  8.3416420e-01
 -6.6058987e-01
  5.7579494e-01
 -5.0251967e-01
 -1.4707257e+00
 -1.5322154e+00
 -5.6892061e-01
 -1.1776949e+00
 -1.2345628e-01
  2.0466794e-01
 -1.5271538e-01
  7.0209974e-01
 -3.4603837e-01
  2.5189584e-01
 -1.5281321e+00
 -2.7244537e+00
  1.3596586e+00
 -6.9129282e-01
 -2.8715125e-01
 -1.5171544e-01
  8.5674649e-01
 -9.0440206e-02
 -4.9316373e-02
  5.1803505e-01
 -8.8695067e-01
  8.8209635e-01
 -3.3957329e-02
 -2.9130888e-01
 -9.8526067e-01
  3.8368845e-01
  6.1010579e-03
 -3.7756878e-01
  5.3686827e-01
  1.2865769e+00
 -8.5951304e-01
 -3.2699889e-01
 -9.9682695e-01
  2.7299421e+00
 -1.5126951e+00
 -5.8392054e-01
  1.0499701e+00
 -1.1725614e+00
 -3.8251579e-01
 -7.7587813e-01
 -8.1853658e-01
 -1.2915227e+00
  5.2782625e-01
 -3.9628467e-01
 -2.7251214e-01
 -1.2406628e-01
 -1.2495872e+00
 -1.0161605e+00
  1.6531719e-01
  9.2243321e-02
  2.3175319e-01
 -1.6055617e-01
  7.3286992e-01
  5.1574171e-01
  5.6426162e-01
 -6.6298649e-02
 -4.9508741e-01
 -1.7445521e+00
 -1.0980407e+00
  5.9336122e-02
  1.2447718e+00
 -9.8281175e-01
 -1.4289249e-02
 -6.7721552e-01
 -3.6431807e-03
  7.0319190e-03
 -3.0531427e-01
 -2.0240123e+00
 -1.2138425e+00
 -4.6235908e-02
  2.3950893e-02
  4.7139078e-01
  1.8881521e-01
  4.8200682e-01
 -4.7543550e-01
  2.3012605e+00
 -5.4926836e-01
 -2.6114181e-01
 -1.0582022e-01
  2.7133555e+00
  2.1195615e-02
 -6.9862437e-01
  1.8992074e-01
 -2.2518716e-03
  5.2401554e-02
  4.5837530e-01
 -1.7103308e-01
 -1.5572777e-01
  3.0806294e-01
 -2.7196962e-01
 -4.4241595e+00
 -1.0369493e-01
 -6.5493536e-01
  6.3836104e-01
 -1.0425781e-01
 -8.4058505e-01
 -1.4691422e+00
 -2.5996277e-01
 -3.0498111e-01
  1.8458074e-01
  1.8972474e+00
  1.4866689e+00
  1.9552948e-02
 -1.3385148e+00
 -2.1135721e+00
  1.9552715e-01
 -3.9582735e-01
  7.1724812e-03
  1.4087546e-02
 -6.1794943e-01
  3.7750162e-02
  3.7582290e-01
  7.4781740e-01
  8.0992198e-01
  5.7474172e-01
  1.0079440e+00
  2.2823043e+00
  1.7151721e+00
 -1.5477736e+00
  1.3571787e-01
  5.4942435e-01
 -6.3606119e-01
 -3.2916787e-01
 -1.6062880e+00
  2.9146168e-01
 -2.9466967e-03
  1.1411940e+00
 -4.7144094e-03
 -1.0271926e+00
  1.4279416e-01
 -9.6721584e-01
 -1.1744010e+00
 -8.8694376e-01
  2.1346018e+00
 -1.7202172e+00
 -4.8415181e-01
 -4.7951391e-01
 -8.4521866e-01
 -5.4533941e-01
 -1.2878764e+00
  5.7816547e-01
 -5.3526610e-01
 -7.9086404e-03
 -8.4360521e-03
 -1.4358957e+00
  3.2167323e-03
  6.9792658e-01
 -2.3326227e-01
 -5.9826928e-01
 -3.3276422e+00
  5.4832842e-02
 -3.7235093e-01
  4.2640081e-01
 -1.0750241e+00
  1.5450305e+00
  7.7328247e-01
  1.0229673e-01
 -8.0906713e-01
 -1.3943316e+00
 -3.3102798e-01
 -3.8102493e-01
  2.8815106e-01
 -9.1205126e-01
  4.8529420e-02
 -6.3120568e-01
  4.2761701e-01
 -6.3793486e-01
 -3.2561228e-01
  1.9477596e+00
 -2.3846581e+00
  8.0057812e-01
  1.7545919e+00
  1.4814891e+00
  1.0186092e+00
 -5.5278850e-01
  4.6666956e+00
  1.9081963e+00
  3.5657236e-01
 -1.7500788e+00
 -1.0100563e+00
  8.9943701e-01
 -4.8935074e-01
  1.1839858e+00
 -4.8581016e-01
  1.2042345e+00
 -3.2671690e-01
  6.7803639e-01
 -7.1737874e-01
 -4.0844858e-01
 -1.8641349e+00
 -1.2501237e+00
  2.8538350e-02
  1.0514274e+00
  8.2337034e-01
  1.5616220e+00
  3.5764399e-01
 -1.2351189e+00
 -2.0146702e-01
 -5.9150541e-01
  6.7834258e-01
  4.8823404e-01
 -1.1716417e+00
  6.1796833e-02
  1.4086429e+00
 -1.1618897e-01
 -1.2494650e+00
  2.4227956e-01
  8.0265456e-01
  1.2195212e-01
 -3.8143300e-02
  6.6629469e-01
  3.2721528e-01
 -3.7194243e-01
 -4.0703109e-01
  1.7172900e-01
  2.3065338e-01
 -3.4620050e-01
  7.0127213e-01
  8.1108343e-03
  7.6433235e-01
 -6.4488120e-02
 -4.5514670e-01
 -5.1142263e-01
 -2.0532921e-01
  1.8473137e-02
 -5.4391253e-01
 -2.3063339e-02
  3.3326501e-01
  4.5314890e-01
  6.5181661e-01
 -1.3252178e+00
  5.7920253e-01
  8.7721777e-01
 -8.6234438e-01
 -1.1370672e+00
  1.2792474e-01
 -5.0319064e-01
 -6.2845361e-01
  1.3097389e-01
  4.7494784e-01
  1.3779049e+00
  2.8934427e-02
  8.5729741e-02
 -1.0385373e+00
 -5.4664426e-02
 -7.0007885e-01
  8.6187345e-01
  2.1863160e-01
 -2.0204825e-02
  1.8856227e-01
  1.8018094e-01
 -6.9324402e-03
 -1.1324025e+00
  1.5995719e+00
  9.7474813e-01
 -8.8248521e-01
  2.5468435e+00
  1.1364109e-02
  4.3837065e-01
 -2.8932106e-01
  2.5713131e-01
 -1.8951865e+00
 -1.2420516e-01
  4.5959187e-01
 -9.9265300e-02
  6.7469567e-01
  1.9169912e-01
  1.4336133e+00
 -4.7933660e-02
  5.9567505e-01
  4.8723087e-01
  6.5944034e-01
  3.0407159e+00
 -9.5398170e-01
 -1.6021945e+00
 -1.4986575e-01
  2.1245863e+00
 -1.4476368e-01
  7.5682926e-01
  1.5006265e-01
  1.6860504e-01
  1.3531967e+00
  1.4563882e+00
 -1.5045699e-01
  1.1945348e+00
  3.2252130e-01
 -1.4800588e-02
  1.1969676e-01
  1.3969725e+00
 -8.8848341e-03
  7.9003066e-01
  2.9575580e-01
  3.0451310e-01
  4.5852295e-01
 -3.8615757e-01
 -1.4843483e-01
  5.7733667e-01
  9.7350240e-01
 -1.0843583e+00
  1.5779930e-01
 -1.7906651e-01
  6.8167329e-01
  1.0715022e+00
 -1.7171210e-01
  2.3506301e-02
  4.0965639e-03
  1.6611639e-01
 -1.7532625e-03
 -1.3319223e-02
  2.0468521e-01
  4.7820264e-01
 -3.5781744e+00
  1.8459300e+00
  3.7308958e-01
 -7.2408485e-01
 -2.3392315e+00
  4.2588657e-01
 -6.7872584e-01
  4.9411598e-01
 -1.5109956e+00
 -1.1924210e+00
 -5.0411570e-01
  1.1477490e-01
  4.0864700e-01
  5.1469219e-01
 -1.0241750e+00
 -3.2052106e-01
  4.6054059e-01
  9.7124070e-01
  8.3059752e-01
 -3.2326114e+00
  5.0413805e-01
  8.1789422e-01
  3.0874527e-01
 -6.3920587e-01
 -1.0066032e+00
 -3.8475494e+00
  8.2486751e-04
  1.2449380e-01
  1.4830630e+00
  7.9227453e-01
  2.0009260e-01
 -1.6681910e+00
  1.0373074e-01
  2.3460010e-02
 -2.5408554e-01
 -6.8978971e-01
 -9.1421014e-01
 -2.2563803e-01
 -3.6040485e-01
 -6.4714664e-01
  2.5886008e-01
 -4.2007782e-02
  5.0270545e-01
  1.0204195e+00
 -2.0036909e-01
 -1.4522319e-01
 -1.3855478e+00
  6.4064479e-01
  8.3330536e-01
  2.0259736e+00
  5.3476477e-01
  1.7820875e-01
 -3.1644803e-02
  1.5990406e-01
 -1.0160746e-01
  9.1422575e-05
  4.9164975e-01
 -1.1774256e-01
  8.2821779e-02
  5.1870418e-01
 -1.5679026e-01
 -1.4191021e-01
 -2.0918530e-01
  2.2340369e-01
  9.1225863e-01
  5.0069381e-02
  5.0069381e-02
  5.0069381e-02
  5.0069381e-02
  5.0069381e-02
  2.9068255e-01
  2.9068255e-01
  2.9068255e-01
  2.9068255e-01
  2.9068255e-01
  1.7550206e+00
  1.7550206e+00
  1.7550206e+00
  1.7550206e+00
  1.7550206e+00
  1.5282333e-01
  1.5282333e-01
  1.5282333e-01
  1.5282333e-01
  1.5282333e-01
  1.4202759e-01
  1.4202759e-01
  1.4202759e-01
  1.4202759e-01
  1.4202759e-01
  7.6610970e+00
  7.6610970e+00
  7.6610970e+00
  7.6610970e+00
  7.6610970e+00
